#include "Arduino.h"
#include "Convolution.h"
#include "LPF.h"
float LPF::kernel[]= {-3.9083967872404562e-05,-3.5162626004274446e-05,-2.8052966505366413e-05,-1.8383675871876264e-05,-7.0155118063338791e-06,5.0348216489910847e-06,1.6685017805514621e-05,2.6883755478163962e-05,3.4704968592438994e-05,3.9431399501503347e-05,4.0619946487861433e-05,3.8142890953394999e-05,3.2201196533675583e-05,2.3308528240511965e-05,1.2247230395627791e-05,2.8397919994234507e-19,-1.2336823669229928e-05,-2.3650756975933602e-05,-3.2912845973449603e-05,-3.9270645162008352e-05,-4.2126153630813335e-05,-4.1191629750502958e-05,-3.6518112800651196e-05,-2.8493862957966112e-05,-1.7812583550728726e-05,-5.4139792572119766e-06,7.5983067668339953e-06,2.0054267512355758e-05,3.0822053320789032e-05,3.8910164730639968e-05,4.3558149517667099e-05,4.4307560915154657e-05,4.1046602783292254e-05,3.4024161249967336e-05,2.3831606390594153e-05,1.1353608364854171e-05,-2.3080020761876895e-06,-1.5930837431589732e-05,-2.8280616440830957e-05,-3.8222292288596268e-05,-4.4823704295580827e-05,-4.7442347135287648e-05,-4.5787235586705377e-05,-3.9949963642131714e-05,-3.0401735822967863e-05,-1.7956154792464357e-05,-3.700619098422762e-06,1.1097955286196734e-05,2.5104984981225671e-05,3.7037835197072036e-05,4.5782548319248976e-05,5.0497126468503138e-05,5.0691853460879707e-05,4.6279056728802959e-05,3.7587338576457497e-05,2.5338424638983305e-05,1.0588113914587586e-05,-5.3639266526770132e-06,-2.1087893387435353e-05,-3.5151224321226229e-05,-4.6248348372032483e-05,-5.3321122511643435e-05,-5.5658913580227895e-05,-5.2968927527479869e-05,-4.5409911465774965e-05,-3.3585541547762022e-05,-1.8497387107019826e-05,-1.4609932991923754e-06,1.60079773581389e-05,3.2327770929451107e-05,4.5992959832349814e-05,5.5712502231753023e-05,6.0530853133064036e-05,5.9920839302775678e-05,5.3839357937669071e-05,4.2740160173428334e-05,2.7541761849209667e-05,9.552554430780545e-06,-9.6408913619735295e-06,-2.8312884918263411e-05,-4.4752931638115735e-05,-5.7421582982010856e-05,-6.5093695481755962e-05,-6.6975844219386768e-05,-6.2786726605591333e-05,-5.2792536747947905e-05,-3.7793224888999772e-05,-1.9059938965806293e-05,1.7716126093772416e-06,2.2843038474459954e-05,4.2238166150039281e-05,5.8156417804288918e-05,6.9079051419702935e-05,7.3912998749541044e-05,7.2098766722463717e-05,6.3671869958957988e-05,4.9271281453992528e-05,3.0093081236758309e-05,7.7924356086246543e-06,-1.5658193069982417e-05,-3.8142561834157602e-05,-5.7590712460211896e-05,-7.2168599044969328e-05,-8.0449988607039712e-05,-8.155461296164486e-05,-7.5239303130314648e-05,-6.1932855562340771e-05,-4.2710322107857256e-05,-1.9207851353413064e-05,6.5153478565250614e-06,3.2156395280154815e-05,5.53739508860994e-05,7.4001050400733078e-05,8.6246302604992009e-05,9.0864858430976994e-05,8.7282943908969523e-05,7.5663658353671977e-05,5.6906850284662924e-05,3.2581754492407182e-05,4.7971839890860177e-06,-2.3980132616553177e-05,-5.1143530163048297e-05,-7.4181534890321353e-05,-9.0909021005733306e-05,-9.9673211823142257e-05,-9.9515211010711981e-05,-9.027142091561076e-05,-7.2604379446466596e-05,-4.795878236615174e-05,-1.8445205895087516e-05,1.3339300953543349e-05,4.4538633876934177e-05,7.2293250776094871e-05,9.4001205642697068e-05,0.00010756086360210552,0.00011157276011488002,0.00010548134924438332,8.9642493389965717e-05,6.5309049737463952e-05,3.4534240389429782e-05,-6.901268206188508e-19,-3.5215506112071382e-05,-6.7911159099680879e-05,-9.5052798512063584e-05,-0.00011405360900061133,-0.00012301917411439622,-0.00012093410823955903,-0.00010777206128250861,-8.4517535351196862e-05,-5.3095785617227399e-05,-1.6215405829352813e-05,2.2863729365179168e-05,6.0617421401548644e-05,9.3573854939563324e-05,0.00011863169443660106,0.00013335052831488486,0.00013618658014861345,0.00012665108220638119,0.00010537533690794271,7.4074711772882437e-05,3.5412902234264302e-05,-7.2230603004006177e-06,-5.0018215895553179e-05,-8.9069859162011362e-05,-0.00012074227099110234,-0.00014200386078843524,-0.00015071557213708521,-0.00014584326332772575,-0.00012757320216407267,-9.7318273059778123e-05,-5.7612248698987216e-05,-1.1899660818044911e-05,3.5761508369839631e-05,8.1058796551356459e-05,0.00011981425617642483,0.0001483684940894973,0.00016392456945504838,0.00016481957050102771,0.00015069769682483081,0.00012256718640945818,8.2733713425034552e-05,3.4614036569353066e-05,-1.7555305955477984e-05,-6.9089590004856971e-05,-0.00011527532575466732,-0.00015180006925464954,-0.00017515354704714429,-0.00018296291551328977,-0.00017423031089020433,-0.00014944919001522457,-0.00011058660800794469,-6.09305958571991e-05,-4.814114294894414e-06,5.276145034531296e-05,0.00010657068321414534,0.00015163706885346534,0.00018369176566441377,0.00019957606236899013,0.00019754973550000033,0.0001774754434653147,0.00014086008197169628,9.0746752682744109e-05,3.1464532959092747e-05,-3.1743643839510532e-05,-9.3183187962013648e-05,-0.00014721952528611395,-0.00018879339098320789,-0.0002138927481571155,-0.00021993746379385536,-0.00020604006798471237,-0.00017311659485797797,-0.00012383474069599721,-6.2401211381987747e-05,5.7951458203372288e-06,7.4654366482667151e-05,0.00013790953595490534,0.00018969568840922308,0.00022509192446455045,0.00024058678383555765,0.00023442305146130797,0.00020678842788974649,0.00015983199143559926,9.7501943306640103e-05,2.5216370743453919e-05,-5.0605785575004503e-05,-0.00012311314069655025,-0.00018563946465652658,-0.00023231493548650265,-0.00025861514147799508,-0.0002617966603209454,-0.00024117752945966806,-0.00019823437723966939,-0.00013650424601115377,-6.1296768015988443e-05,2.0760234989410415e-05,0.00010230306111677509,0.00017589135231592973,0.00023468536149525801,0.00027307975858681545,0.00028723541099388649,0.00027545891036390385,0.00023839267938734933,0.00017899516481034461,0.00010230944314577742,1.5037850295878058e-05,-7.5041758174615621e-05,-0.00015976746783397886,-0.00023133117373979069,-0.00028299629985232536,-0.00030972955998966501,-0.00030868771766356994,-0.00027951256934519408,-0.00022440411288089445,-0.000147961614457578,-5.6803299261385188e-05,4.1004235211461476e-05,0.00013665791882195308,0.00022140877169002626,0.00028736029212649358,0.00032820197595739067,0.0003398100224413628,0.00032065830762818983,0.00027199910261097975,0.00019779337093141637,0.00010439300153881559,-1.5616842207569682e-18,-0.00010605159539649595,-0.00020412840823175955,-0.00028517091645870462,-0.00034152816216633154,-0.0003676772588861604,-0.0003607602726327508,-0.00032088664631744503,-0.00025116990428807555,-0.00015749111590335435,-4.8006397642116684e-05,6.756065405502414e-05,0.00017878045521878481,0.00027545671734897453,0.00034855910626670455,0.00039106415260592572,0.0003986263330067273,0.00037001551479600472,0.00030727727092902943,0.00021559716650688073,0.00010287681585916298,-2.0944092852501476e-05,-0.0001447619227438323,-0.00025730270865597147,-0.00034814654864637299,-0.0004086898774605047,-0.00043295697403350025,-0.00041818444362906457,-0.00036512194566384193,-0.0002780174382734808,-0.00016428348363466724,-3.3870175495254497e-05,0.0001016026223974363,0.00022987830338993355,0.00033917018377931557,0.00041924208517313559,0.00046236398359395041,0.00046405377153672006,0.00042353433207374289,0.00034386000294267066,0.00023169594615029537,9.6765319680361595e-05,-4.8990359173129983e-05,-0.00019246545738089358,-0.00032056624313220295,-0.00042140336313445929,-0.00048539239905067924,-0.00050616088451619072,-0.00048117628718220129,-0.00041203361289787613,-0.00030437138913879021,-0.00016741817691585183,-1.3205450195583251e-05,0.00014448639640001439,0.00029135685574291391,0.0004138795956561754,0.00050054531535519641,0.00054293922630793863,0.00053655260261411728,0.00048125059232800551,0.00038134864864119625,0.00024528488849434328,8.4912301809880123e-05,-8.5530294343144004e-05,-0.00025067954557815201,-0.00039542963478378845,-0.00050631105916258256,-0.00057274052201402507,-0.00058802626239544376,-0.00055003373565702728,-0.00046144610603418541,-0.00032958995734258295,-0.00016583578801048434,1.5378287950928022e-05,0.00019781620504204613,0.00036489563071505804,0.00050119214586841394,0.00059385974943170264,0.00063383717057986831,0.00061672709264801629,0.0005432635457200644,0.000419318997776688,0.00025544388084425951,6.5973747545283745e-05,-0.00013222088312448579,-0.0003212333306642245,-0.00048373535803262623,-0.00060456228344183153,-0.00067212391123339327,-0.0006795103789245812,-0.00062518791472249277,-0.00051321532454044879,-0.00035295466011037727,-0.00015829517636235441,5.3545746008642877e-05,0.000263541630078326,0.00045256221592120225,0.00060311253362907099,0.0007009479695874038,0.00073641660001568172,0.00070540276929063309,0.00060978038457268346,0.00045732771071086792,0.00026110376369468778,3.8335391290589927e-05,-0.00019109065246771564,-0.00040639905454419939,-0.00058780329440146894,-0.00071831970604472359,-0.00078535231555232842,-0.00078190102217300702,-0.00070727786919242309,-0.00056725926945888291,-0.00037365234137245009,-0.00014330650033319509,0.00010334764434422767,0.00034410587643480612,0.00055698492923222248,0.00072222523239637878,0.00082411979545019183,0.00085250041254520607,0.00080374115342891862,0.00068118102927323065,0.00049491916147090438,0.00026099219247999444,-2.6007454815857525e-18,-0.00026470311424357687,-0.00050909341359673831,-0.00071065318812892954,-0.0008504401268645699,-0.00091486090318216792,-0.00089698348758229991,-0.00079726230395612803,-0.00062360195410398321,-0.0003907443276123371,-0.00011902522322381036,0.00016739540929595458,0.00044267615964465571,0.00068162024692507096,0.00086197611073140438,0.00096650295692881445,0.00098461010452984303,0.00091341501144702345,0.00075811550128328568,0.00053163257426066266,0.00025354587572695768,-5.1591486837650591e-05,-0.00035641443103162797,-0.0006331939874397001,-0.0008563535254380143,-0.0010048253413080896,-0.0010640310896119919,-0.0010273006343744918,-0.00089659228798330765,-0.00068243894195342157,-0.00040311387059834616,-8.3080821853649518e-05,0.00024914101478682756,0.00056351151892100365,0.0008311790094273823,0.0010271207311477438,0.0011324734636112526,0.0011363379425065575,0.0010368854787276402,0.00084165609033351799,0.00056700932838525881,0.00023676540787240068,-0.00011985162671572145,-0.00047079193063820259,-0.0007840523873491916,-0.0010305868842681431,-0.0011869904139482077,-0.0012377097777841667,-0.0011765730675195112,-0.0010074889490973851,-0.0007442400129614884,-0.00040937564399846107,-3.2291746902281857e-05,0.00035334018573821723,0.00071257067665383761,0.001012330490154657,0.0012244649112201327,0.0013283665530379658,0.001312961518969365,0.0011778588362259424,0.00093354624581732119,0.0006006003025913803,0.00020796778059711557,-0.00020953942711762142,-0.00061432016808335367,-0.00096935983189213291,-0.0012416039642744736,-0.0014050232087344083,-0.0014430864901424938,-0.001350408802589631,-0.0011334113652187213,-0.00080991911712681398,-0.00040771586232869468,3.782767830461317e-05,0.00048685171866285568,0.00089856098624751504,0.0012349183267145111,0.0014641450565259075,0.0015637071810433321,0.0015225082966725473,0.0013420776717546078,0.0010366299145684753,0.0006319731282923407,0.00016334660433475352,-0.00032763246997656614,-0.0007966501290219306,-0.0012006802846308859,-0.0015019159579960628,-0.0016712893116894378,-0.0016912543271928166,-0.0015575676758111097,-0.0012798899974887194,-0.00088113397404458932,-0.00039559809830208326,0.00013396416474075834,0.00066009112158959605,0.0011348487368184345,0.0015141791997652322,0.0017619693269179599,0.0018534649171136092,0.0017777103385521538,0.0015387757313697474,0.0011556402201210428,0.00066071922207334055,9.7146695786147185e-05,-0.00048496206558476128,-0.0010329452544802086,-0.0014963364481041768,-0.0018314885834354684,-0.0020056584551634712,-0.0020001718791005231,-0.0018123664771788294,-0.0014561146160339082,-0.00096085430543749488,-0.00036918983676864766,0.00026674535708971347,0.0008898555916540819,0.0014431818633303777,0.0018750798694660467,0.0021440089420505094,0.0022224906097687912,0.0020998628097925178,0.0017835581251940812,0.0012987631958265263,0.00068646047125258108,-3.4282294950231345e-18,-0.00069951521708254134,-0.0013486341084897888,-0.0018872775370764219,-0.0022642609147293141,-0.0024421151611800766,-0.0024007557380899777,-0.0021396452077406857,-0.0016782243411965325,-0.0010545391705397821,-0.00032215321944353023,0.00045440897128085062,0.0012053032330863747,0.0018616026093710577,0.0023615766547535762,0.0026564453725007515,0.0027150761196827553,0.0025271766822237531,0.0021046646256288651,0.0014810513572962607,0.0007088554520491507,-0.00014476181671985776,-0.0010037811554617622,-0.0017900367666598424,-0.0024302672160419433,-0.0028628750510281522,-0.0030437773961079612,-0.0029507985269996875,-0.0025861751394728838,-0.0019769059901816257,-0.0011728662006383682,-0.00024280641953852925,0.00073144948762351905,0.0016621250302546818,0.0024633169519621837,0.0030588357519162287,0.003389353024434391,0.0034181937835428338,0.0031352184955524883,0.0025583984633174434,0.0017328864427024174,0.0007276050679776015,-0.00037040042746335486,-0.0014633915572110205,-0.0024515228975485123,-0.0032418406943435143,-0.0037568933147943129,-0.0039421676682721042,-0.0037716510404508753,-0.0032509679730486707,-0.0024177450805875291,-0.0013390962210402563,-0.00010637578986680413,0.0011724032613597726,0.0023818700925413083,0.00340952791593587,0.0041560246101418922,0.0045445409299350011,0.004528428032357759,0.0040963576030906765,0.0032744486596527483,0.0021250892277206264,0.00074245750630052188,-0.00075495857820174908,-0.0022342681628323654,-0.0035597017732701894,-0.0046047754683645114,-0.0052640295668784885,-0.0054632806477430294,-0.0051674232329887116,-0.0043850032692256775,-0.0031690455667412027,-0.0016139312073719071,0.00015153721216229984,0.0019744037639461199,0.0036903719228220137,0.0051381215201231822,0.0061739205165199382,0.0066852527885110872,0.00660222258425634,0.0059056447357058901,0.0046309778601145062,0.0028675875603643079,0.00075321242253511948,-0.001536083768304239,-0.0037997889632931264,-0.0058296070026046002,-0.0074275854878613516,-0.0084242044542995314,-0.0086948642481417902,-0.0081732821109566488,-0.006860506262714638,-0.0048285714206108043,-0.002218228327316895,0.00076934881227727267,0.0038864759858812984,0.0068576103782938868,0.009401426731755088,0.011254670134418792,0.012195921114267705,0.012067336825536013,0.010792513473563043,0.0083888481464723646,0.0049731488485181101,0.00075972427689640352,-0.0039492553622803061,-0.008780740577826936,-0.013314158371939456,-0.017109645723755597,-0.019739238436799793,-0.020818802137871985,-0.020038362824223208,-0.017188540195481397,-0.012181008423841892,-0.0050612927078543968,0.0039872701991307824,0.014648960377512935,0.026490372248272446,0.038983585025410335,0.051536380925061895,0.063527552324266101,0.074344942128530836,0.08342363263339353,0.0902816559189034,0.094550748020200109,0.096000000000000002,0.094550748020200109,0.0902816559189034,0.08342363263339353,0.074344942128530836,0.063527552324266101,0.051536380925061895,0.038983585025410335,0.026490372248272446,0.014648960377512935,0.0039872701991307824,-0.0050612927078543968,-0.012181008423841892,-0.017188540195481397,-0.020038362824223208,-0.020818802137871985,-0.019739238436799793,-0.017109645723755597,-0.013314158371939456,-0.008780740577826936,-0.0039492553622803061,0.00075972427689640352,0.0049731488485181101,0.0083888481464723646,0.010792513473563043,0.012067336825536013,0.012195921114267705,0.011254670134418792,0.009401426731755088,0.0068576103782938868,0.0038864759858812984,0.00076934881227727267,-0.002218228327316895,-0.0048285714206108043,-0.006860506262714638,-0.0081732821109566488,-0.0086948642481417902,-0.0084242044542995314,-0.0074275854878613516,-0.0058296070026046002,-0.0037997889632931264,-0.001536083768304239,0.00075321242253511948,0.0028675875603643079,0.0046309778601145062,0.0059056447357058901,0.00660222258425634,0.0066852527885110872,0.0061739205165199382,0.0051381215201231822,0.0036903719228220137,0.0019744037639461199,0.00015153721216229984,-0.0016139312073719071,-0.0031690455667412027,-0.0043850032692256775,-0.0051674232329887116,-0.0054632806477430294,-0.0052640295668784885,-0.0046047754683645114,-0.0035597017732701894,-0.0022342681628323654,-0.00075495857820174908,0.00074245750630052188,0.0021250892277206264,0.0032744486596527483,0.0040963576030906765,0.004528428032357759,0.0045445409299350011,0.0041560246101418922,0.00340952791593587,0.0023818700925413083,0.0011724032613597726,-0.00010637578986680413,-0.0013390962210402563,-0.0024177450805875291,-0.0032509679730486707,-0.0037716510404508753,-0.0039421676682721042,-0.0037568933147943129,-0.0032418406943435143,-0.0024515228975485123,-0.0014633915572110205,-0.00037040042746335486,0.0007276050679776015,0.0017328864427024174,0.0025583984633174434,0.0031352184955524883,0.0034181937835428338,0.003389353024434391,0.0030588357519162287,0.0024633169519621837,0.0016621250302546818,0.00073144948762351905,-0.00024280641953852925,-0.0011728662006383682,-0.0019769059901816257,-0.0025861751394728838,-0.0029507985269996875,-0.0030437773961079612,-0.0028628750510281522,-0.0024302672160419433,-0.0017900367666598424,-0.0010037811554617622,-0.00014476181671985776,0.0007088554520491507,0.0014810513572962607,0.0021046646256288651,0.0025271766822237531,0.0027150761196827553,0.0026564453725007515,0.0023615766547535762,0.0018616026093710577,0.0012053032330863747,0.00045440897128085062,-0.00032215321944353023,-0.0010545391705397821,-0.0016782243411965325,-0.0021396452077406857,-0.0024007557380899777,-0.0024421151611800766,-0.0022642609147293141,-0.0018872775370764219,-0.0013486341084897888,-0.00069951521708254134,-3.4282294950231345e-18,0.00068646047125258108,0.0012987631958265263,0.0017835581251940812,0.0020998628097925178,0.0022224906097687912,0.0021440089420505094,0.0018750798694660467,0.0014431818633303777,0.0008898555916540819,0.00026674535708971347,-0.00036918983676864766,-0.00096085430543749488,-0.0014561146160339082,-0.0018123664771788294,-0.0020001718791005231,-0.0020056584551634712,-0.0018314885834354684,-0.0014963364481041768,-0.0010329452544802086,-0.00048496206558476128,9.7146695786147185e-05,0.00066071922207334055,0.0011556402201210428,0.0015387757313697474,0.0017777103385521538,0.0018534649171136092,0.0017619693269179599,0.0015141791997652322,0.0011348487368184345,0.00066009112158959605,0.00013396416474075834,-0.00039559809830208326,-0.00088113397404458932,-0.0012798899974887194,-0.0015575676758111097,-0.0016912543271928166,-0.0016712893116894378,-0.0015019159579960628,-0.0012006802846308859,-0.0007966501290219306,-0.00032763246997656614,0.00016334660433475352,0.0006319731282923407,0.0010366299145684753,0.0013420776717546078,0.0015225082966725473,0.0015637071810433321,0.0014641450565259075,0.0012349183267145111,0.00089856098624751504,0.00048685171866285568,3.782767830461317e-05,-0.00040771586232869468,-0.00080991911712681398,-0.0011334113652187213,-0.001350408802589631,-0.0014430864901424938,-0.0014050232087344083,-0.0012416039642744736,-0.00096935983189213291,-0.00061432016808335367,-0.00020953942711762142,0.00020796778059711557,0.0006006003025913803,0.00093354624581732119,0.0011778588362259424,0.001312961518969365,0.0013283665530379658,0.0012244649112201327,0.001012330490154657,0.00071257067665383761,0.00035334018573821723,-3.2291746902281857e-05,-0.00040937564399846107,-0.0007442400129614884,-0.0010074889490973851,-0.0011765730675195112,-0.0012377097777841667,-0.0011869904139482077,-0.0010305868842681431,-0.0007840523873491916,-0.00047079193063820259,-0.00011985162671572145,0.00023676540787240068,0.00056700932838525881,0.00084165609033351799,0.0010368854787276402,0.0011363379425065575,0.0011324734636112526,0.0010271207311477438,0.0008311790094273823,0.00056351151892100365,0.00024914101478682756,-8.3080821853649518e-05,-0.00040311387059834616,-0.00068243894195342157,-0.00089659228798330765,-0.0010273006343744918,-0.0010640310896119919,-0.0010048253413080896,-0.0008563535254380143,-0.0006331939874397001,-0.00035641443103162797,-5.1591486837650591e-05,0.00025354587572695768,0.00053163257426066266,0.00075811550128328568,0.00091341501144702345,0.00098461010452984303,0.00096650295692881445,0.00086197611073140438,0.00068162024692507096,0.00044267615964465571,0.00016739540929595458,-0.00011902522322381036,-0.0003907443276123371,-0.00062360195410398321,-0.00079726230395612803,-0.00089698348758229991,-0.00091486090318216792,-0.0008504401268645699,-0.00071065318812892954,-0.00050909341359673831,-0.00026470311424357687,-2.6007454815857525e-18,0.00026099219247999444,0.00049491916147090438,0.00068118102927323065,0.00080374115342891862,0.00085250041254520607,0.00082411979545019183,0.00072222523239637878,0.00055698492923222248,0.00034410587643480612,0.00010334764434422767,-0.00014330650033319509,-0.00037365234137245009,-0.00056725926945888291,-0.00070727786919242309,-0.00078190102217300702,-0.00078535231555232842,-0.00071831970604472359,-0.00058780329440146894,-0.00040639905454419939,-0.00019109065246771564,3.8335391290589927e-05,0.00026110376369468778,0.00045732771071086792,0.00060978038457268346,0.00070540276929063309,0.00073641660001568172,0.0007009479695874038,0.00060311253362907099,0.00045256221592120225,0.000263541630078326,5.3545746008642877e-05,-0.00015829517636235441,-0.00035295466011037727,-0.00051321532454044879,-0.00062518791472249277,-0.0006795103789245812,-0.00067212391123339327,-0.00060456228344183153,-0.00048373535803262623,-0.0003212333306642245,-0.00013222088312448579,6.5973747545283745e-05,0.00025544388084425951,0.000419318997776688,0.0005432635457200644,0.00061672709264801629,0.00063383717057986831,0.00059385974943170264,0.00050119214586841394,0.00036489563071505804,0.00019781620504204613,1.5378287950928022e-05,-0.00016583578801048434,-0.00032958995734258295,-0.00046144610603418541,-0.00055003373565702728,-0.00058802626239544376,-0.00057274052201402507,-0.00050631105916258256,-0.00039542963478378845,-0.00025067954557815201,-8.5530294343144004e-05,8.4912301809880123e-05,0.00024528488849434328,0.00038134864864119625,0.00048125059232800551,0.00053655260261411728,0.00054293922630793863,0.00050054531535519641,0.0004138795956561754,0.00029135685574291391,0.00014448639640001439,-1.3205450195583251e-05,-0.00016741817691585183,-0.00030437138913879021,-0.00041203361289787613,-0.00048117628718220129,-0.00050616088451619072,-0.00048539239905067924,-0.00042140336313445929,-0.00032056624313220295,-0.00019246545738089358,-4.8990359173129983e-05,9.6765319680361595e-05,0.00023169594615029537,0.00034386000294267066,0.00042353433207374289,0.00046405377153672006,0.00046236398359395041,0.00041924208517313559,0.00033917018377931557,0.00022987830338993355,0.0001016026223974363,-3.3870175495254497e-05,-0.00016428348363466724,-0.0002780174382734808,-0.00036512194566384193,-0.00041818444362906457,-0.00043295697403350025,-0.0004086898774605047,-0.00034814654864637299,-0.00025730270865597147,-0.0001447619227438323,-2.0944092852501476e-05,0.00010287681585916298,0.00021559716650688073,0.00030727727092902943,0.00037001551479600472,0.0003986263330067273,0.00039106415260592572,0.00034855910626670455,0.00027545671734897453,0.00017878045521878481,6.756065405502414e-05,-4.8006397642116684e-05,-0.00015749111590335435,-0.00025116990428807555,-0.00032088664631744503,-0.0003607602726327508,-0.0003676772588861604,-0.00034152816216633154,-0.00028517091645870462,-0.00020412840823175955,-0.00010605159539649595,-1.5616842207569682e-18,0.00010439300153881559,0.00019779337093141637,0.00027199910261097975,0.00032065830762818983,0.0003398100224413628,0.00032820197595739067,0.00028736029212649358,0.00022140877169002626,0.00013665791882195308,4.1004235211461476e-05,-5.6803299261385188e-05,-0.000147961614457578,-0.00022440411288089445,-0.00027951256934519408,-0.00030868771766356994,-0.00030972955998966501,-0.00028299629985232536,-0.00023133117373979069,-0.00015976746783397886,-7.5041758174615621e-05,1.5037850295878058e-05,0.00010230944314577742,0.00017899516481034461,0.00023839267938734933,0.00027545891036390385,0.00028723541099388649,0.00027307975858681545,0.00023468536149525801,0.00017589135231592973,0.00010230306111677509,2.0760234989410415e-05,-6.1296768015988443e-05,-0.00013650424601115377,-0.00019823437723966939,-0.00024117752945966806,-0.0002617966603209454,-0.00025861514147799508,-0.00023231493548650265,-0.00018563946465652658,-0.00012311314069655025,-5.0605785575004503e-05,2.5216370743453919e-05,9.7501943306640103e-05,0.00015983199143559926,0.00020678842788974649,0.00023442305146130797,0.00024058678383555765,0.00022509192446455045,0.00018969568840922308,0.00013790953595490534,7.4654366482667151e-05,5.7951458203372288e-06,-6.2401211381987747e-05,-0.00012383474069599721,-0.00017311659485797797,-0.00020604006798471237,-0.00021993746379385536,-0.0002138927481571155,-0.00018879339098320789,-0.00014721952528611395,-9.3183187962013648e-05,-3.1743643839510532e-05,3.1464532959092747e-05,9.0746752682744109e-05,0.00014086008197169628,0.0001774754434653147,0.00019754973550000033,0.00019957606236899013,0.00018369176566441377,0.00015163706885346534,0.00010657068321414534,5.276145034531296e-05,-4.814114294894414e-06,-6.09305958571991e-05,-0.00011058660800794469,-0.00014944919001522457,-0.00017423031089020433,-0.00018296291551328977,-0.00017515354704714429,-0.00015180006925464954,-0.00011527532575466732,-6.9089590004856971e-05,-1.7555305955477984e-05,3.4614036569353066e-05,8.2733713425034552e-05,0.00012256718640945818,0.00015069769682483081,0.00016481957050102771,0.00016392456945504838,0.0001483684940894973,0.00011981425617642483,8.1058796551356459e-05,3.5761508369839631e-05,-1.1899660818044911e-05,-5.7612248698987216e-05,-9.7318273059778123e-05,-0.00012757320216407267,-0.00014584326332772575,-0.00015071557213708521,-0.00014200386078843524,-0.00012074227099110234,-8.9069859162011362e-05,-5.0018215895553179e-05,-7.2230603004006177e-06,3.5412902234264302e-05,7.4074711772882437e-05,0.00010537533690794271,0.00012665108220638119,0.00013618658014861345,0.00013335052831488486,0.00011863169443660106,9.3573854939563324e-05,6.0617421401548644e-05,2.2863729365179168e-05,-1.6215405829352813e-05,-5.3095785617227399e-05,-8.4517535351196862e-05,-0.00010777206128250861,-0.00012093410823955903,-0.00012301917411439622,-0.00011405360900061133,-9.5052798512063584e-05,-6.7911159099680879e-05,-3.5215506112071382e-05,-6.901268206188508e-19,3.4534240389429782e-05,6.5309049737463952e-05,8.9642493389965717e-05,0.00010548134924438332,0.00011157276011488002,0.00010756086360210552,9.4001205642697068e-05,7.2293250776094871e-05,4.4538633876934177e-05,1.3339300953543349e-05,-1.8445205895087516e-05,-4.795878236615174e-05,-7.2604379446466596e-05,-9.027142091561076e-05,-9.9515211010711981e-05,-9.9673211823142257e-05,-9.0909021005733306e-05,-7.4181534890321353e-05,-5.1143530163048297e-05,-2.3980132616553177e-05,4.7971839890860177e-06,3.2581754492407182e-05,5.6906850284662924e-05,7.5663658353671977e-05,8.7282943908969523e-05,9.0864858430976994e-05,8.6246302604992009e-05,7.4001050400733078e-05,5.53739508860994e-05,3.2156395280154815e-05,6.5153478565250614e-06,-1.9207851353413064e-05,-4.2710322107857256e-05,-6.1932855562340771e-05,-7.5239303130314648e-05,-8.155461296164486e-05,-8.0449988607039712e-05,-7.2168599044969328e-05,-5.7590712460211896e-05,-3.8142561834157602e-05,-1.5658193069982417e-05,7.7924356086246543e-06,3.0093081236758309e-05,4.9271281453992528e-05,6.3671869958957988e-05,7.2098766722463717e-05,7.3912998749541044e-05,6.9079051419702935e-05,5.8156417804288918e-05,4.2238166150039281e-05,2.2843038474459954e-05,1.7716126093772416e-06,-1.9059938965806293e-05,-3.7793224888999772e-05,-5.2792536747947905e-05,-6.2786726605591333e-05,-6.6975844219386768e-05,-6.5093695481755962e-05,-5.7421582982010856e-05,-4.4752931638115735e-05,-2.8312884918263411e-05,-9.6408913619735295e-06,9.552554430780545e-06,2.7541761849209667e-05,4.2740160173428334e-05,5.3839357937669071e-05,5.9920839302775678e-05,6.0530853133064036e-05,5.5712502231753023e-05,4.5992959832349814e-05,3.2327770929451107e-05,1.60079773581389e-05,-1.4609932991923754e-06,-1.8497387107019826e-05,-3.3585541547762022e-05,-4.5409911465774965e-05,-5.2968927527479869e-05,-5.5658913580227895e-05,-5.3321122511643435e-05,-4.6248348372032483e-05,-3.5151224321226229e-05,-2.1087893387435353e-05,-5.3639266526770132e-06,1.0588113914587586e-05,2.5338424638983305e-05,3.7587338576457497e-05,4.6279056728802959e-05,5.0691853460879707e-05,5.0497126468503138e-05,4.5782548319248976e-05,3.7037835197072036e-05,2.5104984981225671e-05,1.1097955286196734e-05,-3.700619098422762e-06,-1.7956154792464357e-05,-3.0401735822967863e-05,-3.9949963642131714e-05,-4.5787235586705377e-05,-4.7442347135287648e-05,-4.4823704295580827e-05,-3.8222292288596268e-05,-2.8280616440830957e-05,-1.5930837431589732e-05,-2.3080020761876895e-06,1.1353608364854171e-05,2.3831606390594153e-05,3.4024161249967336e-05,4.1046602783292254e-05,4.4307560915154657e-05,4.3558149517667099e-05,3.8910164730639968e-05,3.0822053320789032e-05,2.0054267512355758e-05,7.5983067668339953e-06,-5.4139792572119766e-06,-1.7812583550728726e-05,-2.8493862957966112e-05,-3.6518112800651196e-05,-4.1191629750502958e-05,-4.2126153630813335e-05,-3.9270645162008352e-05,-3.2912845973449603e-05,-2.3650756975933602e-05,-1.2336823669229928e-05,2.8397919994234507e-19,1.2247230395627791e-05,2.3308528240511965e-05,3.2201196533675583e-05,3.8142890953394999e-05,4.0619946487861433e-05,3.9431399501503347e-05,3.4704968592438994e-05,2.6883755478163962e-05,1.6685017805514621e-05,5.0348216489910847e-06,-7.0155118063338791e-06,-1.8383675871876264e-05,-2.8052966505366413e-05,-3.5162626004274446e-05,-3.9083967872404562e-05};

LPF::LPF(){
    convo.attach(kernel);
}
int LPF::run(){
    return convo.run();
}

