#include "Arduino.h"
#include "Convolution.h"
#include "BPF.h"
float kernel[]= {7.8167935744809315e-05,6.7840803569437703e-05,3.4546178124011686e-05,-5.3312179999607866e-06,-3.268550739865545e-05,-3.6776518956484639e-05,-2.1229230537757097e-05,-1.3498838053233144e-06,5.6095631710838223e-06,-8.6550563300300495e-06,-3.8064356070718395e-05,-6.5522848532996566e-05,-7.3125513091522302e-05,-5.3083819088954953e-05,-1.2765336934097265e-05,2.9258980192347099e-05,5.3865856540661247e-05,5.2381508475760519e-05,3.133519186304145e-05,8.0946035823955737e-06,1.7400808997918196e-19,1.3557606939267905e-05,4.025929085283339e-05,6.1629284617712539e-05,6.0524522423095186e-05,3.1889527527283648e-05,-1.3580220831431936e-05,-5.5194753755641386e-05,-7.4103470940367668e-05,-6.4155149194549765e-05,-3.5248988107409959e-05,-7.1139615528524356e-06,2.7817756603983232e-06,-1.0092885098842633e-05,-3.4563562367324326e-05,-5.0649648864065298e-05,-4.2037366862222036e-05,-6.5919013786343735e-06,4.1539571407758129e-05,7.9670219599504543e-05,8.9647408591160964e-05,6.8449495465361211e-05,2.9888914789473585e-05,-3.6981807820331304e-06,-1.4851749300533745e-05,-1.415682667796396e-06,2.2358223973870478e-05,3.479632356912984e-05,2.0518639621887731e-05,-1.9434036597982614e-05,-6.7326180261161628e-05,-9.8679689049879459e-05,-9.6613738490584404e-05,-6.196884918553496e-05,-1.3024952911050376e-05,2.516939812165811e-05,3.5546809824987263e-05,1.898038874522539e-05,-6.6310028028379107e-06,-1.7712215748497775e-05,8.3392551359234825e-19,4.1950670722181391e-05,8.6676043912993448e-05,0.00010821024311642403,9.1656692833740606e-05,4.2524071741600455e-05,-1.5962498015711085e-05,-5.6170853332551436e-05,-6.2121910914805795e-05,-3.8635488047194731e-05,-7.9442744508066487e-06,4.3114096424963613e-06,-1.4698166499775232e-05,-5.6455425931919503e-05,-9.5623043956131963e-05,-0.0001051450262731373,-7.292694612956155e-05,-9.9520873936995098e-06,5.5304471077602603e-05,9.3073429747270886e-05,8.9505863276231009e-05,5.4520219975628357e-05,1.5408184825513139e-05,-9.9434843663198941e-08,1.8869823824471506e-05,5.9240468221854547e-05,9.1638219820910815e-05,8.8391859281539451e-05,4.1086043201995095e-05,-3.3092950752055143e-05,-0.00010037401439280844,-0.00012966829387196059,-0.00011063450655311488,-5.9597005254465732e-05,-9.5486452435633161e-06,9.9232857620661467e-06,-9.2808810216171813e-06,-4.8746759240443963e-05,-7.4870480351465438e-05,-5.9902234014878693e-05,-6.1253755083143755e-19,8.0859864477209875e-05,0.00014387657938668241,0.0001578350719759472,0.00011754673364779276,4.7072146773077442e-05,-1.4493529680494e-05,-3.6334998503304766e-05,-1.4311664005727536e-05,2.6835513367287983e-05,4.9061388169420553e-05,2.5142274526205555e-05,-4.3295458965976103e-05,-0.00012506804782029882,-0.00017692960714530234,-0.00016905481670598284,-0.00010319541396328507,-1.2327370928651769e-05,5.8366143470515643e-05,7.7988249980776828e-05,4.7960265233103616e-05,5.2171329509118677e-07,-2.1664360870080923e-05,7.3797273247267317e-06,7.9639487387587701e-05,0.00015645970042669011,0.00019100689101646709,0.00015657955631200818,6.3635353408071873e-05,-4.5095904640844922e-05,-0.00011893074070906193,-0.00012863291804642506,-8.3187162693920187e-05,-2.3598118706834781e-05,2.8258897605252574e-06,-2.7715324189096298e-05,-9.98090017095532e-05,-0.00016716203172525705,-0.00018040159012798704,-0.00011776946448490371,7.9383478515475604e-18,0.00012009273259280401,0.00018758933315162114,0.00017725097015458826,0.00010792028104749057,3.0558680170178658e-05,-3.177237953728202e-06,2.7055162516660161e-05,9.7253531806519366e-05,0.00015334699889501358,0.00014457355995636895,5.5898566004118065e-05,-8.0431796706667276e-05,-0.00020180260199930333,-0.00025101489375616931,-0.00020965622742478624,-0.00010881388523275715,-1.0281162878275597e-05,3.0774360883141588e-05,-7.5563344647734722e-07,-7.0825804468531423e-05,-0.00011742593855380813,-8.9601386130986965e-05,1.9294640047034065e-05,0.00016467679344227032,0.00027504155545175329,0.00029346930627916715,0.00021149117911385768,7.4638674850456237e-05,-4.4186891101886392e-05,-8.7899681295391298e-05,-4.9012503089751666e-05,2.6645702463553427e-05,6.8959237627276229e-05,2.8038937689393517e-05,-9.2824138976742797e-05,-0.00023626864262263494,-0.0003233600056818155,-0.00030043356012907606,-0.00017208965923573653,4.5711896590580533e-18,0.00013242001229069731,0.0001686730895984148,0.00011191587805483796,2.1713593628689838e-05,-2.3658099988055649e-05,2.31970553718774e-05,0.00014752536119076216,0.00027904095490280536,0.00033321896742394557,0.00026279601591631556,8.8270796822851835e-05,-0.00011164568758009505,-0.00024468508019775346,-0.00025840471998685144,-0.00017015759256951875,-5.5206433644286535e-05,2.9629808764472518e-07,-4.6761561381448741e-05,-0.00016850807162583495,-0.00028172016394339863,-0.00029831334867477062,-0.00018049465424639158,3.3071313016257949e-05,0.00024673676890723259,0.00036217461028026051,0.00033531229598828015,0.00020152264790455017,5.3405450197001865e-05,-1.5944771824367244e-05,2.9902092549690889e-05,0.00014799707825291004,0.00024215941887728964,0.0002228061457192826,6.4423703193808185e-05,-0.0001746130843969878,-0.00038288732312358274,-0.00045984038202805295,-0.00037465895935173059,-0.00018443355612767921,-9.0112867159820689e-19,8.0537129800904811e-05,3.0659091805417576e-05,-8.9228759162035976e-05,-0.00016989562545227297,-0.00012229188263865819,6.4328717519227246e-05,0.00031107568343653703,0.00049289528676916574,0.00051159372505841746,0.00035466706025440083,0.00010401510028204672,-0.00011156674392973966,-0.00019218875176757282,-0.00012542819763352125,8.0656840041519481e-06,8.5925826207410621e-05,2.1724898212201679e-05,-0.00017826054642839243,-0.00041442129552005,-0.00055091782072781053,-0.00049690366486393348,-0.00026291443985454796,4.2333854840723208e-05,0.00027389560703999842,0.00033476922750408589,0.00023171467119096066,6.8621793177578203e-05,-1.9178985970368659e-05,4.9729755735555852e-05,0.00024980238621968214,0.00046086082421472506,0.00053952030660307196,0.00040723027506446607,0.000101522796011689,-0.0002415239559274717,-0.0004643433810978244,-0.00047888432072098553,-0.00031679954666411414,-0.00010802275641124815,2.7226390163365824e-19,-6.6095218831891013e-05,-0.00025896101703771839,-0.00043807118505492901,-0.00045580763699851911,-0.00025047528065010158,0.00011053799952339984,0.00046489059204765128,0.00064759300366414756,0.00058668594540249065,0.00034454496648659585,7.9185636846459067e-05,-5.1866749525518516e-05,1.2611712171637784e-05,0.00020038427564974114,0.00035065952997000524,0.00031476737819466518,5.1845865187470491e-05,-0.00033921463604120257,-0.00067249044077947898,-0.00078212830521184971,-0.00061994081302389574,-0.00028430486030961753,3.8061391325426809e-05,0.00018328167598406498,0.00010770094662992068,-8.7786385048996041e-05,-0.00022203844806857153,-0.00014838566311166915,0.00014977223026153974,0.00054148126829843914,0.00082119461772656513,0.0008295929031113344,0.00054978757988120115,0.00012015527288323842,-0.00024528421819244102,-0.00038208437245815111,-0.00027101942827877242,-4.5972066413721663e-05,9.1533745046691462e-05,-6.3794281200331943e-18,-0.00030976717602607026,-0.00067493538360569006,-0.00087509034411785327,-0.00076504681753994798,-0.00036587470130312449,0.00014197547132750518,0.00052102045826684393,0.00061417052873733596,0.00043470640619933045,0.00015397265683932839,-6.6365703316153942e-06,8.544680063663656e-05,0.0003887130935027902,0.00070892628960986693,0.00081582360930021784,0.00058555045680024694,8.2340348446354128e-05,-0.00047154877391101553,-0.00082155332224049529,-0.00082775919131234602,-0.0005446927639094054,-0.00018506939944810008,1.1602951881013556e-05,-7.3372804821977212e-05,-0.00036385029034928675,-0.00063452427712041703,-0.00065013308883231672,-0.00031452044993309923,0.00026148885208961045,0.00081651942628766471,0.0010875922202746731,0.00096306532175175971,0.00054725953348574421,9.6699571268298092e-05,-0.00013477751009321383,-4.90390863666125e-05,0.00023819494295368717,0.00047050179985894114,0.00041211708666548456,2.4633543516352574e-18,-0.00060675786657180214,-0.0011124894105591007,-0.0012561309650054194,-0.00096578717763989028,-0.00040290425258701678,0.00013216058731844123,0.00037774359117017552,0.00026508785310513569,-4.4485441941118777e-05,-0.00026308792861560949,-0.00015876033590505998,0.00029371894763983118,0.00088669063615667192,0.0012965512726360797,0.001275287051725336,0.00080156802400546776,9.906091870558504e-05,-0.00049122445765679664,-0.00070942382064518824,-0.00052708326015664874,-0.00015792835252606324,7.8521165551457013e-05,-4.1235301226226905e-05,-0.00050004973555073677,-0.0010421295045170917,-0.001323034915454168,-0.0011188109706424059,-0.00046789395980508376,0.00034176969601506163,0.00093533960581020006,0.001067469717052446,0.00076258201604638822,0.0002936250240416698,1.0872973229945236e-05,0.00012354457301317262,0.00056697279474238497,0.0010376735440258919,0.0011774561432268884,0.00079652973723081321,-1.2023333774068958e-17,-0.00086128146512189638,-0.0013890612763365947,-0.0013677801967519809,-0.00088801057779153007,-0.00028761710636631749,5.5405938133954684e-05,-4.5943868143031418e-05,-0.0004729941719511332,-0.00087442726257832442,-0.00088486243659412201,-0.00035745409244641993,0.00053164632450954769,0.0013733746885453428,0.0017595053880210306,0.0015210654798350079,0.00082744386836031906,8.463608276366778e-05,-0.00030799315518066774,-0.00019652674649072647,0.00023805044644763042,0.00059563048867708772,0.00050961221303278737,-0.00011636920344140762,-0.0010329691923167414,-0.0017802932408419448,-0.0019555885699895693,-0.0014534565758909297,-0.00053269577424957344,0.00033314969860075589,0.00073395011215753752,0.00056313410968452315,7.4139640937851407e-05,-0.00028266396993096969,-0.00014531534996050152,0.00052516808536658371,0.001405552033517214,0.0019941673236542438,0.0019099148170930527,0.0011267306104254195,-5.9837319975681257e-18,-0.00093457031830981082,-0.0012714209380427926,-0.00096886683515004578,-0.0003641767597933159,4.0926627402478455e-05,-0.00010411177883881749,-0.00077357698927360563,-0.0015700132471644038,-0.0019595409106927739,-0.001598395467863415,-0.00055319004624360753,0.0007212767822873359,0.0016377783991351504,0.0018152217060797566,0.0012968525811433626,0.00051516817731139537,2.2541040819309741e-05,0.00014904814790137061,0.0007952823175910713,0.0014884800259229928,0.0016716171981512749,0.0010525559577481383,-0.00019916720803406991,-0.0015311634397707978,-0.0023203388093565552,-0.0022336607866116935,-0.0014204596492541062,-0.00041817335180258162,0.00017440700817408366,6.0579533919379341e-05,-0.00057470240674749231,-0.0011806952340953347,-0.0011852648283697095,-0.00036053648987560114,0.001013839354011048,0.0022939095322680914,0.0028404300492007764,0.0023942741873050196,0.0012313044951260885,2.7593473753184477e-18,-0.0006639307188570883,-0.00051519814621918728,0.00016021272561332256,0.00072907610255848888,0.00061134115227829051,-0.00034509236091443172,-0.0017454962609443837,-0.0028634394484969104,-0.0030658332221408734,-0.0021937860610531852,-0.00066752958031925211,0.00075272351695794711,0.0014105245640367462,0.0011359720207623253,0.00033529754870887312,-0.00027000749558693163,-9.9369059672884381e-05,0.0009117993432843348,0.0022494293154540724,0.0031151353516222246,0.0029051910314445025,0.0015860549302583581,-0.00026404005517895738,-0.0017791579900429096,-0.0023057343578088284,-0.0017792316219247554,-0.00074836146252953628,-2.854978564654044e-05,-0.0001914409857650302,-0.0012000972353596998,-0.0024155719772163777,-0.0029777345218058074,-0.002334861503868291,-0.00060148014836242548,0.0014776271846406409,0.00294400936603214,0.0031780190070143598,0.0022557358890035305,0.00089213127107486123,-6.3562604222834249e-18,0.00012805445943592111,0.0011190785902323679,0.0022003538504989386,0.0024584476421087307,0.0014149329571000804,-0.00064750085421324058,-0.0028138988574192172,-0.0040532396553014686,-0.0038174153084853855,-0.002362317866956746,-0.00059252675796181344,0.00048315569826371722,0.00036033134244533948,-0.0006574204640781492,-0.0016495397728025019,-0.0016552392337525815,-0.00028967588195319763,0.001977742857706897,0.0040618044013075146,0.0048842303223601523,0.0040113387432397906,0.0019204445679280027,-0.00027337735167426907,-0.0014740896755980016,-0.0012532468156369288,-9.6666713722989576e-05,0.00090671315719882304,0.00075252562989001697,-0.00082938149772192955,-0.0031631894289415739,-0.0049942233204733214,-0.0052256230459179253,-0.0035850041405809854,-0.00081409766121424477,0.0017445683103940791,0.0029261787993422493,0.002422909364143412,0.0009508041096228469,-0.0002050937967417128,7.2918520601646255e-18,0.0016960134867584846,0.0039753797446493355,0.0054117533303589616,0.004919563157462772,0.0024382024412757633,-0.0009813634062353499,-0.0037562721588172104,-0.0046827270533383869,-0.0036341125796585522,-0.0016194569049694267,-0.00015535288163330275,-0.00032164293325196716,-0.0020722986571040467,-0.0042302478711694026,-0.0051870996607441397,-0.0038979529311062712,-0.00056987033054600039,0.0033869406720894711,0.0061383342754342879,0.0064836813886870208,0.0045580312560424899,0.0017453096900049707,-0.00016180532996223405,-5.9912850781193832e-05,0.0017742810657790148,0.003833778398493234,0.0043025847733850807,0.0022049207369450822,-0.0019171253135785308,-0.0062301347097996462,-0.0086336704697491228,-0.0079855715705571626,-0.0047903214776915531,-0.00091725357096155498,0.0015065706282217149,0.0013767770196289547,-0.00071140442521295535,-0.0028208633995967843,-0.0028762115334914303,-3.7185050594082848e-18,0.0048374427774630817,0.0092820223264572337,0.010934672286298163,0.0087818372344960708,0.0038494313430685544,-0.0013459764506002605,-0.004256861457039178,-0.0038174231101825722,-0.0010884679720143346,0.0013889892715646551,0.0011799551984981252,-0.0024599135672537156,-0.0079800999338359574,-0.012330057378791058,-0.01273168650638869,-0.008389651341996299,-0.0010900675192107789,0.0057305134774588767,0.0089486341853573514,0.0075995779265862406,0.0034741922881807142,4.7406834011168368e-05,0.00032093712884410409,0.0048575999659118858,0.011233094012355879,0.015326508513608984,0.013764958626313059,0.0060892463355008168,-0.0047075031573694231,-0.013702593814177927,-0.016828885574896629,-0.013302403360679239,-0.0061886450035577327,-0.00064427282950758294,-0.00076193524644173935,-0.0068654387083080561,-0.014960473195049987,-0.018855072676004545,-0.013870354201325954,1.3185691104414038e-17,0.017471909139690271,0.030516652730423189,0.032830380658822544,0.023706708293316819,0.0089058890670676589,-0.002322799531209794,-0.0026919506782183199,0.0081993301055579212,0.022496726133410791,0.027575223404300769,0.013010034287166414,-0.022498522679396549,-0.068180707624536485,-0.10442674996692987,-0.11127449022442178,-0.078342903400650934,-0.011281936843421776,0.068819497323093781,0.13333764944010651,0.158,0.13333764944010651,0.068819497323093781,-0.011281936843421776,-0.078342903400650934,-0.11127449022442178,-0.10442674996692987,-0.068180707624536485,-0.022498522679396549,0.013010034287166414,0.027575223404300769,0.022496726133410791,0.0081993301055579212,-0.0026919506782183199,-0.002322799531209794,0.0089058890670676589,0.023706708293316819,0.032830380658822544,0.030516652730423189,0.017471909139690271,1.3185691104414038e-17,-0.013870354201325954,-0.018855072676004545,-0.014960473195049987,-0.0068654387083080561,-0.00076193524644173935,-0.00064427282950758294,-0.0061886450035577327,-0.013302403360679239,-0.016828885574896629,-0.013702593814177927,-0.0047075031573694231,0.0060892463355008168,0.013764958626313059,0.015326508513608984,0.011233094012355879,0.0048575999659118858,0.00032093712884410409,4.7406834011168368e-05,0.0034741922881807142,0.0075995779265862406,0.0089486341853573514,0.0057305134774588767,-0.0010900675192107789,-0.008389651341996299,-0.01273168650638869,-0.012330057378791058,-0.0079800999338359574,-0.0024599135672537156,0.0011799551984981252,0.0013889892715646551,-0.0010884679720143346,-0.0038174231101825722,-0.004256861457039178,-0.0013459764506002605,0.0038494313430685544,0.0087818372344960708,0.010934672286298163,0.0092820223264572337,0.0048374427774630817,-3.7185050594082848e-18,-0.0028762115334914303,-0.0028208633995967843,-0.00071140442521295535,0.0013767770196289547,0.0015065706282217149,-0.00091725357096155498,-0.0047903214776915531,-0.0079855715705571626,-0.0086336704697491228,-0.0062301347097996462,-0.0019171253135785308,0.0022049207369450822,0.0043025847733850807,0.003833778398493234,0.0017742810657790148,-5.9912850781193832e-05,-0.00016180532996223405,0.0017453096900049707,0.0045580312560424899,0.0064836813886870208,0.0061383342754342879,0.0033869406720894711,-0.00056987033054600039,-0.0038979529311062712,-0.0051870996607441397,-0.0042302478711694026,-0.0020722986571040467,-0.00032164293325196716,-0.00015535288163330275,-0.0016194569049694267,-0.0036341125796585522,-0.0046827270533383869,-0.0037562721588172104,-0.0009813634062353499,0.0024382024412757633,0.004919563157462772,0.0054117533303589616,0.0039753797446493355,0.0016960134867584846,7.2918520601646255e-18,-0.0002050937967417128,0.0009508041096228469,0.002422909364143412,0.0029261787993422493,0.0017445683103940791,-0.00081409766121424477,-0.0035850041405809854,-0.0052256230459179253,-0.0049942233204733214,-0.0031631894289415739,-0.00082938149772192955,0.00075252562989001697,0.00090671315719882304,-9.6666713722989576e-05,-0.0012532468156369288,-0.0014740896755980016,-0.00027337735167426907,0.0019204445679280027,0.0040113387432397906,0.0048842303223601523,0.0040618044013075146,0.001977742857706897,-0.00028967588195319763,-0.0016552392337525815,-0.0016495397728025019,-0.0006574204640781492,0.00036033134244533948,0.00048315569826371722,-0.00059252675796181344,-0.002362317866956746,-0.0038174153084853855,-0.0040532396553014686,-0.0028138988574192172,-0.00064750085421324058,0.0014149329571000804,0.0024584476421087307,0.0022003538504989386,0.0011190785902323679,0.00012805445943592111,-6.3562604222834249e-18,0.00089213127107486123,0.0022557358890035305,0.0031780190070143598,0.00294400936603214,0.0014776271846406409,-0.00060148014836242548,-0.002334861503868291,-0.0029777345218058074,-0.0024155719772163777,-0.0012000972353596998,-0.0001914409857650302,-2.854978564654044e-05,-0.00074836146252953628,-0.0017792316219247554,-0.0023057343578088284,-0.0017791579900429096,-0.00026404005517895738,0.0015860549302583581,0.0029051910314445025,0.0031151353516222246,0.0022494293154540724,0.0009117993432843348,-9.9369059672884381e-05,-0.00027000749558693163,0.00033529754870887312,0.0011359720207623253,0.0014105245640367462,0.00075272351695794711,-0.00066752958031925211,-0.0021937860610531852,-0.0030658332221408734,-0.0028634394484969104,-0.0017454962609443837,-0.00034509236091443172,0.00061134115227829051,0.00072907610255848888,0.00016021272561332256,-0.00051519814621918728,-0.0006639307188570883,2.7593473753184477e-18,0.0012313044951260885,0.0023942741873050196,0.0028404300492007764,0.0022939095322680914,0.001013839354011048,-0.00036053648987560114,-0.0011852648283697095,-0.0011806952340953347,-0.00057470240674749231,6.0579533919379341e-05,0.00017440700817408366,-0.00041817335180258162,-0.0014204596492541062,-0.0022336607866116935,-0.0023203388093565552,-0.0015311634397707978,-0.00019916720803406991,0.0010525559577481383,0.0016716171981512749,0.0014884800259229928,0.0007952823175910713,0.00014904814790137061,2.2541040819309741e-05,0.00051516817731139537,0.0012968525811433626,0.0018152217060797566,0.0016377783991351504,0.0007212767822873359,-0.00055319004624360753,-0.001598395467863415,-0.0019595409106927739,-0.0015700132471644038,-0.00077357698927360563,-0.00010411177883881749,4.0926627402478455e-05,-0.0003641767597933159,-0.00096886683515004578,-0.0012714209380427926,-0.00093457031830981082,-5.9837319975681257e-18,0.0011267306104254195,0.0019099148170930527,0.0019941673236542438,0.001405552033517214,0.00052516808536658371,-0.00014531534996050152,-0.00028266396993096969,7.4139640937851407e-05,0.00056313410968452315,0.00073395011215753752,0.00033314969860075589,-0.00053269577424957344,-0.0014534565758909297,-0.0019555885699895693,-0.0017802932408419448,-0.0010329691923167414,-0.00011636920344140762,0.00050961221303278737,0.00059563048867708772,0.00023805044644763042,-0.00019652674649072647,-0.00030799315518066774,8.463608276366778e-05,0.00082744386836031906,0.0015210654798350079,0.0017595053880210306,0.0013733746885453428,0.00053164632450954769,-0.00035745409244641993,-0.00088486243659412201,-0.00087442726257832442,-0.0004729941719511332,-4.5943868143031418e-05,5.5405938133954684e-05,-0.00028761710636631749,-0.00088801057779153007,-0.0013677801967519809,-0.0013890612763365947,-0.00086128146512189638,-1.2023333774068958e-17,0.00079652973723081321,0.0011774561432268884,0.0010376735440258919,0.00056697279474238497,0.00012354457301317262,1.0872973229945236e-05,0.0002936250240416698,0.00076258201604638822,0.001067469717052446,0.00093533960581020006,0.00034176969601506163,-0.00046789395980508376,-0.0011188109706424059,-0.001323034915454168,-0.0010421295045170917,-0.00050004973555073677,-4.1235301226226905e-05,7.8521165551457013e-05,-0.00015792835252606324,-0.00052708326015664874,-0.00070942382064518824,-0.00049122445765679664,9.906091870558504e-05,0.00080156802400546776,0.001275287051725336,0.0012965512726360797,0.00088669063615667192,0.00029371894763983118,-0.00015876033590505998,-0.00026308792861560949,-4.4485441941118777e-05,0.00026508785310513569,0.00037774359117017552,0.00013216058731844123,-0.00040290425258701678,-0.00096578717763989028,-0.0012561309650054194,-0.0011124894105591007,-0.00060675786657180214,2.4633543516352574e-18,0.00041211708666548456,0.00047050179985894114,0.00023819494295368717,-4.90390863666125e-05,-0.00013477751009321383,9.6699571268298092e-05,0.00054725953348574421,0.00096306532175175971,0.0010875922202746731,0.00081651942628766471,0.00026148885208961045,-0.00031452044993309923,-0.00065013308883231672,-0.00063452427712041703,-0.00036385029034928675,-7.3372804821977212e-05,1.1602951881013556e-05,-0.00018506939944810008,-0.0005446927639094054,-0.00082775919131234602,-0.00082155332224049529,-0.00047154877391101553,8.2340348446354128e-05,0.00058555045680024694,0.00081582360930021784,0.00070892628960986693,0.0003887130935027902,8.544680063663656e-05,-6.6365703316153942e-06,0.00015397265683932839,0.00043470640619933045,0.00061417052873733596,0.00052102045826684393,0.00014197547132750518,-0.00036587470130312449,-0.00076504681753994798,-0.00087509034411785327,-0.00067493538360569006,-0.00030976717602607026,-6.3794281200331943e-18,9.1533745046691462e-05,-4.5972066413721663e-05,-0.00027101942827877242,-0.00038208437245815111,-0.00024528421819244102,0.00012015527288323842,0.00054978757988120115,0.0008295929031113344,0.00082119461772656513,0.00054148126829843914,0.00014977223026153974,-0.00014838566311166915,-0.00022203844806857153,-8.7786385048996041e-05,0.00010770094662992068,0.00018328167598406498,3.8061391325426809e-05,-0.00028430486030961753,-0.00061994081302389574,-0.00078212830521184971,-0.00067249044077947898,-0.00033921463604120257,5.1845865187470491e-05,0.00031476737819466518,0.00035065952997000524,0.00020038427564974114,1.2611712171637784e-05,-5.1866749525518516e-05,7.9185636846459067e-05,0.00034454496648659585,0.00058668594540249065,0.00064759300366414756,0.00046489059204765128,0.00011053799952339984,-0.00025047528065010158,-0.00045580763699851911,-0.00043807118505492901,-0.00025896101703771839,-6.6095218831891013e-05,2.7226390163365824e-19,-0.00010802275641124815,-0.00031679954666411414,-0.00047888432072098553,-0.0004643433810978244,-0.0002415239559274717,0.000101522796011689,0.00040723027506446607,0.00053952030660307196,0.00046086082421472506,0.00024980238621968214,4.9729755735555852e-05,-1.9178985970368659e-05,6.8621793177578203e-05,0.00023171467119096066,0.00033476922750408589,0.00027389560703999842,4.2333854840723208e-05,-0.00026291443985454796,-0.00049690366486393348,-0.00055091782072781053,-0.00041442129552005,-0.00017826054642839243,2.1724898212201679e-05,8.5925826207410621e-05,8.0656840041519481e-06,-0.00012542819763352125,-0.00019218875176757282,-0.00011156674392973966,0.00010401510028204672,0.00035466706025440083,0.00051159372505841746,0.00049289528676916574,0.00031107568343653703,6.4328717519227246e-05,-0.00012229188263865819,-0.00016989562545227297,-8.9228759162035976e-05,3.0659091805417576e-05,8.0537129800904811e-05,-9.0112867159820689e-19,-0.00018443355612767921,-0.00037465895935173059,-0.00045984038202805295,-0.00038288732312358274,-0.0001746130843969878,6.4423703193808185e-05,0.0002228061457192826,0.00024215941887728964,0.00014799707825291004,2.9902092549690889e-05,-1.5944771824367244e-05,5.3405450197001865e-05,0.00020152264790455017,0.00033531229598828015,0.00036217461028026051,0.00024673676890723259,3.3071313016257949e-05,-0.00018049465424639158,-0.00029831334867477062,-0.00028172016394339863,-0.00016850807162583495,-4.6761561381448741e-05,2.9629808764472518e-07,-5.5206433644286535e-05,-0.00017015759256951875,-0.00025840471998685144,-0.00024468508019775346,-0.00011164568758009505,8.8270796822851835e-05,0.00026279601591631556,0.00033321896742394557,0.00027904095490280536,0.00014752536119076216,2.31970553718774e-05,-2.3658099988055649e-05,2.1713593628689838e-05,0.00011191587805483796,0.0001686730895984148,0.00013242001229069731,4.5711896590580533e-18,-0.00017208965923573653,-0.00030043356012907606,-0.0003233600056818155,-0.00023626864262263494,-9.2824138976742797e-05,2.8038937689393517e-05,6.8959237627276229e-05,2.6645702463553427e-05,-4.9012503089751666e-05,-8.7899681295391298e-05,-4.4186891101886392e-05,7.4638674850456237e-05,0.00021149117911385768,0.00029346930627916715,0.00027504155545175329,0.00016467679344227032,1.9294640047034065e-05,-8.9601386130986965e-05,-0.00011742593855380813,-7.0825804468531423e-05,-7.5563344647734722e-07,3.0774360883141588e-05,-1.0281162878275597e-05,-0.00010881388523275715,-0.00020965622742478624,-0.00025101489375616931,-0.00020180260199930333,-8.0431796706667276e-05,5.5898566004118065e-05,0.00014457355995636895,0.00015334699889501358,9.7253531806519366e-05,2.7055162516660161e-05,-3.177237953728202e-06,3.0558680170178658e-05,0.00010792028104749057,0.00017725097015458826,0.00018758933315162114,0.00012009273259280401,7.9383478515475604e-18,-0.00011776946448490371,-0.00018040159012798704,-0.00016716203172525705,-9.98090017095532e-05,-2.7715324189096298e-05,2.8258897605252574e-06,-2.3598118706834781e-05,-8.3187162693920187e-05,-0.00012863291804642506,-0.00011893074070906193,-4.5095904640844922e-05,6.3635353408071873e-05,0.00015657955631200818,0.00019100689101646709,0.00015645970042669011,7.9639487387587701e-05,7.3797273247267317e-06,-2.1664360870080923e-05,5.2171329509118677e-07,4.7960265233103616e-05,7.7988249980776828e-05,5.8366143470515643e-05,-1.2327370928651769e-05,-0.00010319541396328507,-0.00016905481670598284,-0.00017692960714530234,-0.00012506804782029882,-4.3295458965976103e-05,2.5142274526205555e-05,4.9061388169420553e-05,2.6835513367287983e-05,-1.4311664005727536e-05,-3.6334998503304766e-05,-1.4493529680494e-05,4.7072146773077442e-05,0.00011754673364779276,0.0001578350719759472,0.00014387657938668241,8.0859864477209875e-05,-6.1253755083143755e-19,-5.9902234014878693e-05,-7.4870480351465438e-05,-4.8746759240443963e-05,-9.2808810216171813e-06,9.9232857620661467e-06,-9.5486452435633161e-06,-5.9597005254465732e-05,-0.00011063450655311488,-0.00012966829387196059,-0.00010037401439280844,-3.3092950752055143e-05,4.1086043201995095e-05,8.8391859281539451e-05,9.1638219820910815e-05,5.9240468221854547e-05,1.8869823824471506e-05,-9.9434843663198941e-08,1.5408184825513139e-05,5.4520219975628357e-05,8.9505863276231009e-05,9.3073429747270886e-05,5.5304471077602603e-05,-9.9520873936995098e-06,-7.292694612956155e-05,-0.0001051450262731373,-9.5623043956131963e-05,-5.6455425931919503e-05,-1.4698166499775232e-05,4.3114096424963613e-06,-7.9442744508066487e-06,-3.8635488047194731e-05,-6.2121910914805795e-05,-5.6170853332551436e-05,-1.5962498015711085e-05,4.2524071741600455e-05,9.1656692833740606e-05,0.00010821024311642403,8.6676043912993448e-05,4.1950670722181391e-05,8.3392551359234825e-19,-1.7712215748497775e-05,-6.6310028028379107e-06,1.898038874522539e-05,3.5546809824987263e-05,2.516939812165811e-05,-1.3024952911050376e-05,-6.196884918553496e-05,-9.6613738490584404e-05,-9.8679689049879459e-05,-6.7326180261161628e-05,-1.9434036597982614e-05,2.0518639621887731e-05,3.479632356912984e-05,2.2358223973870478e-05,-1.415682667796396e-06,-1.4851749300533745e-05,-3.6981807820331304e-06,2.9888914789473585e-05,6.8449495465361211e-05,8.9647408591160964e-05,7.9670219599504543e-05,4.1539571407758129e-05,-6.5919013786343735e-06,-4.2037366862222036e-05,-5.0649648864065298e-05,-3.4563562367324326e-05,-1.0092885098842633e-05,2.7817756603983232e-06,-7.1139615528524356e-06,-3.5248988107409959e-05,-6.4155149194549765e-05,-7.4103470940367668e-05,-5.5194753755641386e-05,-1.3580220831431936e-05,3.1889527527283648e-05,6.0524522423095186e-05,6.1629284617712539e-05,4.025929085283339e-05,1.3557606939267905e-05,1.7400808997918196e-19,8.0946035823955737e-06,3.133519186304145e-05,5.2381508475760519e-05,5.3865856540661247e-05,2.9258980192347099e-05,-1.2765336934097265e-05,-5.3083819088954953e-05,-7.3125513091522302e-05,-6.5522848532996566e-05,-3.8064356070718395e-05,-8.6550563300300495e-06,5.6095631710838223e-06,-1.3498838053233144e-06,-2.1229230537757097e-05,-3.6776518956484639e-05,-3.268550739865545e-05,-5.3312179999607866e-06,3.4546178124011686e-05,6.7840803569437703e-05,7.8167935744809315e-05};
Convolution convo;
BPF::BPF(){
    convo.attach(&kernel);
}
int BPF::run(){
    return convo.run();
}
